<?xml version="1.0"?>
<!-- DTD for the XMLBIF 0.3 format -->
<!DOCTYPE BIF [
	<!ELEMENT BIF ( NETWORK )*>
	      <!ATTLIST BIF VERSION CDATA #REQUIRED>
	<!ELEMENT NETWORK ( NAME, ( PROPERTY | VARIABLE | DEFINITION )* )>
	<!ELEMENT NAME (#PCDATA)>
	<!ELEMENT VARIABLE ( NAME, ( OUTCOME |  PROPERTY )* ) >
	      <!ATTLIST VARIABLE TYPE (nature|decision|utility) "nature">
	<!ELEMENT OUTCOME (#PCDATA)>
	<!ELEMENT DEFINITION ( FOR | GIVEN | TABLE | PROPERTY )* >
	<!ELEMENT FOR (#PCDATA)>
	<!ELEMENT GIVEN (#PCDATA)>
	<!ELEMENT TABLE (#PCDATA)>
	<!ELEMENT PROPERTY (#PCDATA)>
]>


<BIF VERSION="0.3">
<NETWORK>
<NAME>TrainingData_g1-2</NAME>
<VARIABLE TYPE="nature">
<NAME>light_livingroom</NAME>
<OUTCOME>off</OUTCOME>
<OUTCOME>on</OUTCOME>
<PROPERTY>position = (0,0)</PROPERTY>
</VARIABLE>
<VARIABLE TYPE="nature">
<NAME>light_hallway</NAME>
<OUTCOME>off</OUTCOME>
<OUTCOME>on</OUTCOME>
<PROPERTY>position = (50,0)</PROPERTY>
</VARIABLE>
<VARIABLE TYPE="nature">
<NAME>light_bedroom</NAME>
<OUTCOME>off</OUTCOME>
<OUTCOME>on</OUTCOME>
<PROPERTY>position = (100,0)</PROPERTY>
</VARIABLE>
<VARIABLE TYPE="nature">
<NAME>light_kitchen</NAME>
<OUTCOME>off</OUTCOME>
<OUTCOME>on</OUTCOME>
<PROPERTY>position = (150,0)</PROPERTY>
</VARIABLE>
<VARIABLE TYPE="nature">
<NAME>light_study</NAME>
<OUTCOME>off</OUTCOME>
<OUTCOME>on</OUTCOME>
<PROPERTY>position = (200,0)</PROPERTY>
</VARIABLE>
<VARIABLE TYPE="nature">
<NAME>switch_door_hallway</NAME>
<OUTCOME>on</OUTCOME>
<OUTCOME>off</OUTCOME>
<PROPERTY>position = (250,0)</PROPERTY>
</VARIABLE>
<VARIABLE TYPE="nature">
<NAME>audio_livingroom</NAME>
<OUTCOME>off</OUTCOME>
<OUTCOME>on</OUTCOME>
<PROPERTY>position = (300,0)</PROPERTY>
</VARIABLE>
<VARIABLE TYPE="nature">
<NAME>current_watercoldfan_livingroom</NAME>
<OUTCOME>off</OUTCOME>
<OUTCOME>standby</OUTCOME>
<OUTCOME>on</OUTCOME>
<PROPERTY>position = (350,0)</PROPERTY>
</VARIABLE>
<VARIABLE TYPE="nature">
<NAME>current_lamp_bedroom</NAME>
<OUTCOME>off</OUTCOME>
<OUTCOME>standby</OUTCOME>
<OUTCOME>on</OUTCOME>
<PROPERTY>position = (400,0)</PROPERTY>
</VARIABLE>
<VARIABLE TYPE="nature">
<NAME>current_PC_bedroom</NAME>
<OUTCOME>off</OUTCOME>
<OUTCOME>standby</OUTCOME>
<OUTCOME>on</OUTCOME>
<PROPERTY>position = (450,0)</PROPERTY>
</VARIABLE>
<VARIABLE TYPE="nature">
<NAME>current_TV_livingroom</NAME>
<OUTCOME>off</OUTCOME>
<OUTCOME>standby</OUTCOME>
<OUTCOME>on</OUTCOME>
<PROPERTY>position = (0,50)</PROPERTY>
</VARIABLE>
<VARIABLE TYPE="nature">
<NAME>current_lamp_livingroom</NAME>
<OUTCOME>off</OUTCOME>
<OUTCOME>standby</OUTCOME>
<OUTCOME>on</OUTCOME>
<PROPERTY>position = (50,50)</PROPERTY>
</VARIABLE>
<VARIABLE TYPE="nature">
<NAME>current_xbox_livingroom</NAME>
<OUTCOME>off</OUTCOME>
<OUTCOME>standby</OUTCOME>
<OUTCOME>on</OUTCOME>
<PROPERTY>position = (100,50)</PROPERTY>
</VARIABLE>
<VARIABLE TYPE="nature">
<NAME>current_microwave_kitchen</NAME>
<OUTCOME>off</OUTCOME>
<OUTCOME>standby</OUTCOME>
<OUTCOME>on</OUTCOME>
<PROPERTY>position = (150,50)</PROPERTY>
</VARIABLE>
<VARIABLE TYPE="nature">
<NAME>current_AC_bedroom</NAME>
<OUTCOME>off</OUTCOME>
<OUTCOME>standby</OUTCOME>
<OUTCOME>on</OUTCOME>
<PROPERTY>position = (200,50)</PROPERTY>
</VARIABLE>
<VARIABLE TYPE="nature">
<NAME>current_AC_livingroom</NAME>
<OUTCOME>off</OUTCOME>
<OUTCOME>standby</OUTCOME>
<OUTCOME>on</OUTCOME>
<PROPERTY>position = (250,50)</PROPERTY>
</VARIABLE>
<VARIABLE TYPE="nature">
<NAME>current_lamp_study</NAME>
<OUTCOME>off</OUTCOME>
<OUTCOME>standby</OUTCOME>
<OUTCOME>on</OUTCOME>
<PROPERTY>position = (300,50)</PROPERTY>
</VARIABLE>
<VARIABLE TYPE="nature">
<NAME>current_NB_study</NAME>
<OUTCOME>off</OUTCOME>
<OUTCOME>standby</OUTCOME>
<OUTCOME>on</OUTCOME>
<PROPERTY>position = (350,50)</PROPERTY>
</VARIABLE>
<VARIABLE TYPE="nature">
<NAME>current_nightlamp_bedroom</NAME>
<OUTCOME>off</OUTCOME>
<OUTCOME>standby</OUTCOME>
<OUTCOME>on</OUTCOME>
<PROPERTY>position = (400,50)</PROPERTY>
</VARIABLE>
<VARIABLE TYPE="nature">
<NAME>people_hallway</NAME>
<OUTCOME>off</OUTCOME>
<OUTCOME>on</OUTCOME>
<PROPERTY>position = (450,50)</PROPERTY>
</VARIABLE>
<VARIABLE TYPE="nature">
<NAME>people_livingroom</NAME>
<OUTCOME>off</OUTCOME>
<OUTCOME>on</OUTCOME>
<PROPERTY>position = (0,100)</PROPERTY>
</VARIABLE>
<VARIABLE TYPE="nature">
<NAME>people_bedroom</NAME>
<OUTCOME>off</OUTCOME>
<OUTCOME>on</OUTCOME>
<PROPERTY>position = (50,100)</PROPERTY>
</VARIABLE>
<VARIABLE TYPE="nature">
<NAME>people_kitchen</NAME>
<OUTCOME>off</OUTCOME>
<OUTCOME>on</OUTCOME>
<PROPERTY>position = (100,100)</PROPERTY>
</VARIABLE>
<VARIABLE TYPE="nature">
<NAME>people_study</NAME>
<OUTCOME>off</OUTCOME>
<OUTCOME>on</OUTCOME>
<PROPERTY>position = (150,100)</PROPERTY>
</VARIABLE>
<VARIABLE TYPE="nature">
<NAME>class</NAME>
<OUTCOME>OtherActivity</OUTCOME>
<OUTCOME>g1-2</OUTCOME>
<PROPERTY>position = (200,100)</PROPERTY>
</VARIABLE>
<DEFINITION>
<FOR>light_livingroom</FOR>
<GIVEN>class</GIVEN>
<TABLE>
0.693050193050193 0.30694980694980695 
0.037142857142857144 0.9628571428571429 
</TABLE>
</DEFINITION>
<DEFINITION>
<FOR>light_hallway</FOR>
<GIVEN>class</GIVEN>
<TABLE>
0.9998244998244998 1.755001755001755E-4 
0.9971428571428571 0.002857142857142857 
</TABLE>
</DEFINITION>
<DEFINITION>
<FOR>light_bedroom</FOR>
<GIVEN>class</GIVEN>
<TABLE>
0.9457704457704458 0.05422955422955423 
0.9171428571428571 0.08285714285714285 
</TABLE>
</DEFINITION>
<DEFINITION>
<FOR>light_kitchen</FOR>
<GIVEN>class</GIVEN>
<TABLE>
0.872060372060372 0.12793962793962793 
0.9914285714285714 0.008571428571428572 
</TABLE>
</DEFINITION>
<DEFINITION>
<FOR>light_study</FOR>
<GIVEN>class</GIVEN>
<TABLE>
0.8524043524043524 0.14759564759564758 
0.9971428571428571 0.002857142857142857 
</TABLE>
</DEFINITION>
<DEFINITION>
<FOR>switch_door_hallway</FOR>
<GIVEN>class</GIVEN>
<TABLE>
0.06546156546156547 0.9345384345384345 
0.002857142857142857 0.9971428571428571 
</TABLE>
</DEFINITION>
<DEFINITION>
<FOR>audio_livingroom</FOR>
<GIVEN>class</GIVEN>
<TABLE>
0.8390663390663391 0.16093366093366093 
0.6314285714285715 0.36857142857142855 
</TABLE>
</DEFINITION>
<DEFINITION>
<FOR>current_watercoldfan_livingroom</FOR>
<GIVEN>class</GIVEN>
<TABLE>
1.7546938059308652E-4 0.9336725741358133 0.06615195648359361 
0.002849002849002849 0.886039886039886 0.1111111111111111 
</TABLE>
</DEFINITION>
<DEFINITION>
<FOR>current_lamp_bedroom</FOR>
<GIVEN>class</GIVEN>
<TABLE>
0.9996490612388138 1.7546938059308652E-4 1.7546938059308652E-4 
0.9943019943019943 0.002849002849002849 0.002849002849002849 
</TABLE>
</DEFINITION>
<DEFINITION>
<FOR>current_PC_bedroom</FOR>
<GIVEN>class</GIVEN>
<TABLE>
1.7546938059308652E-4 0.8908580452711002 0.10896648534830672 
0.002849002849002849 0.9031339031339032 0.09401709401709402 
</TABLE>
</DEFINITION>
<DEFINITION>
<FOR>current_TV_livingroom</FOR>
<GIVEN>class</GIVEN>
<TABLE>
0.8220740480786103 1.7546938059308652E-4 0.17775048254079662 
0.002849002849002849 0.002849002849002849 0.9943019943019943 
</TABLE>
</DEFINITION>
<DEFINITION>
<FOR>current_lamp_livingroom</FOR>
<GIVEN>class</GIVEN>
<TABLE>
0.9105106158975259 1.7546938059308652E-4 0.08931391472188104 
0.9544159544159544 0.002849002849002849 0.042735042735042736 
</TABLE>
</DEFINITION>
<DEFINITION>
<FOR>current_xbox_livingroom</FOR>
<GIVEN>class</GIVEN>
<TABLE>
0.49991226530970345 0.49991226530970345 1.7546938059308652E-4 
0.019943019943019943 0.019943019943019943 0.9601139601139601 
</TABLE>
</DEFINITION>
<DEFINITION>
<FOR>current_microwave_kitchen</FOR>
<GIVEN>class</GIVEN>
<TABLE>
1.7546938059308652E-4 0.8747148622565363 0.12510966836287069 
0.014245014245014245 0.9829059829059829 0.002849002849002849 
</TABLE>
</DEFINITION>
<DEFINITION>
<FOR>current_AC_bedroom</FOR>
<GIVEN>class</GIVEN>
<TABLE>
0.06334444639410423 0.9364800842253027 1.7546938059308652E-4 
0.09401709401709402 0.9031339031339032 0.002849002849002849 
</TABLE>
</DEFINITION>
<DEFINITION>
<FOR>current_AC_livingroom</FOR>
<GIVEN>class</GIVEN>
<TABLE>
1.7546938059308652E-4 0.9849096332689946 0.014914897350412354 
0.002849002849002849 0.9943019943019943 0.002849002849002849 
</TABLE>
</DEFINITION>
<DEFINITION>
<FOR>current_lamp_study</FOR>
<GIVEN>class</GIVEN>
<TABLE>
0.8908580452711002 1.7546938059308652E-4 0.10896648534830672 
0.9943019943019943 0.002849002849002849 0.002849002849002849 
</TABLE>
</DEFINITION>
<DEFINITION>
<FOR>current_NB_study</FOR>
<GIVEN>class</GIVEN>
<TABLE>
1.7546938059308652E-4 0.9119143709422706 0.08791015967713633 
0.002849002849002849 0.9943019943019943 0.002849002849002849 
</TABLE>
</DEFINITION>
<DEFINITION>
<FOR>current_nightlamp_bedroom</FOR>
<GIVEN>class</GIVEN>
<TABLE>
0.7308299701702053 1.7546938059308652E-4 0.2689945604492016 
0.9031339031339032 0.002849002849002849 0.09401709401709402 
</TABLE>
</DEFINITION>
<DEFINITION>
<FOR>people_hallway</FOR>
<GIVEN>class</GIVEN>
<TABLE>
0.9998244998244998 1.755001755001755E-4 
0.9971428571428571 0.002857142857142857 
</TABLE>
</DEFINITION>
<DEFINITION>
<FOR>people_livingroom</FOR>
<GIVEN>class</GIVEN>
<TABLE>
0.693050193050193 0.30694980694980695 
0.002857142857142857 0.9971428571428571 
</TABLE>
</DEFINITION>
<DEFINITION>
<FOR>people_bedroom</FOR>
<GIVEN>class</GIVEN>
<TABLE>
0.6375921375921376 0.36240786240786244 
0.8142857142857143 0.18571428571428572 
</TABLE>
</DEFINITION>
<DEFINITION>
<FOR>people_kitchen</FOR>
<GIVEN>class</GIVEN>
<TABLE>
0.8706563706563707 0.12934362934362933 
0.9971428571428571 0.002857142857142857 
</TABLE>
</DEFINITION>
<DEFINITION>
<FOR>people_study</FOR>
<GIVEN>class</GIVEN>
<TABLE>
0.8243243243243243 0.17567567567567569 
0.9971428571428571 0.002857142857142857 
</TABLE>
</DEFINITION>
<DEFINITION>
<FOR>class</FOR>
<TABLE>
0.942275884882567 0.057724115117433014 
</TABLE>
</DEFINITION>
</NETWORK>
</BIF>
