<?xml version="1.0"?>
<!-- DTD for the XMLBIF 0.3 format -->
<!DOCTYPE BIF [
	<!ELEMENT BIF ( NETWORK )*>
	      <!ATTLIST BIF VERSION CDATA #REQUIRED>
	<!ELEMENT NETWORK ( NAME, ( PROPERTY | VARIABLE | DEFINITION )* )>
	<!ELEMENT NAME (#PCDATA)>
	<!ELEMENT VARIABLE ( NAME, ( OUTCOME |  PROPERTY )* ) >
	      <!ATTLIST VARIABLE TYPE (nature|decision|utility) "nature">
	<!ELEMENT OUTCOME (#PCDATA)>
	<!ELEMENT DEFINITION ( FOR | GIVEN | TABLE | PROPERTY )* >
	<!ELEMENT FOR (#PCDATA)>
	<!ELEMENT GIVEN (#PCDATA)>
	<!ELEMENT TABLE (#PCDATA)>
	<!ELEMENT PROPERTY (#PCDATA)>
]>


<BIF VERSION="0.3">
<NETWORK>
<NAME>TrainingData_g1-8</NAME>
<VARIABLE TYPE="nature">
<NAME>light_livingroom</NAME>
<OUTCOME>off</OUTCOME>
<OUTCOME>on</OUTCOME>
<PROPERTY>position = (0,0)</PROPERTY>
</VARIABLE>
<VARIABLE TYPE="nature">
<NAME>light_hallway</NAME>
<OUTCOME>off</OUTCOME>
<OUTCOME>on</OUTCOME>
<PROPERTY>position = (50,0)</PROPERTY>
</VARIABLE>
<VARIABLE TYPE="nature">
<NAME>light_bedroom</NAME>
<OUTCOME>off</OUTCOME>
<OUTCOME>on</OUTCOME>
<PROPERTY>position = (100,0)</PROPERTY>
</VARIABLE>
<VARIABLE TYPE="nature">
<NAME>light_kitchen</NAME>
<OUTCOME>off</OUTCOME>
<OUTCOME>on</OUTCOME>
<PROPERTY>position = (150,0)</PROPERTY>
</VARIABLE>
<VARIABLE TYPE="nature">
<NAME>light_study</NAME>
<OUTCOME>off</OUTCOME>
<OUTCOME>on</OUTCOME>
<PROPERTY>position = (200,0)</PROPERTY>
</VARIABLE>
<VARIABLE TYPE="nature">
<NAME>switch_door_hallway</NAME>
<OUTCOME>on</OUTCOME>
<OUTCOME>off</OUTCOME>
<PROPERTY>position = (250,0)</PROPERTY>
</VARIABLE>
<VARIABLE TYPE="nature">
<NAME>audio_livingroom</NAME>
<OUTCOME>off</OUTCOME>
<OUTCOME>on</OUTCOME>
<PROPERTY>position = (300,0)</PROPERTY>
</VARIABLE>
<VARIABLE TYPE="nature">
<NAME>current_watercoldfan_livingroom</NAME>
<OUTCOME>off</OUTCOME>
<OUTCOME>standby</OUTCOME>
<OUTCOME>on</OUTCOME>
<PROPERTY>position = (350,0)</PROPERTY>
</VARIABLE>
<VARIABLE TYPE="nature">
<NAME>current_lamp_bedroom</NAME>
<OUTCOME>off</OUTCOME>
<OUTCOME>standby</OUTCOME>
<OUTCOME>on</OUTCOME>
<PROPERTY>position = (400,0)</PROPERTY>
</VARIABLE>
<VARIABLE TYPE="nature">
<NAME>current_PC_bedroom</NAME>
<OUTCOME>off</OUTCOME>
<OUTCOME>standby</OUTCOME>
<OUTCOME>on</OUTCOME>
<PROPERTY>position = (450,0)</PROPERTY>
</VARIABLE>
<VARIABLE TYPE="nature">
<NAME>current_TV_livingroom</NAME>
<OUTCOME>off</OUTCOME>
<OUTCOME>standby</OUTCOME>
<OUTCOME>on</OUTCOME>
<PROPERTY>position = (0,50)</PROPERTY>
</VARIABLE>
<VARIABLE TYPE="nature">
<NAME>current_lamp_livingroom</NAME>
<OUTCOME>off</OUTCOME>
<OUTCOME>standby</OUTCOME>
<OUTCOME>on</OUTCOME>
<PROPERTY>position = (50,50)</PROPERTY>
</VARIABLE>
<VARIABLE TYPE="nature">
<NAME>current_xbox_livingroom</NAME>
<OUTCOME>off</OUTCOME>
<OUTCOME>standby</OUTCOME>
<OUTCOME>on</OUTCOME>
<PROPERTY>position = (100,50)</PROPERTY>
</VARIABLE>
<VARIABLE TYPE="nature">
<NAME>current_microwave_kitchen</NAME>
<OUTCOME>off</OUTCOME>
<OUTCOME>standby</OUTCOME>
<OUTCOME>on</OUTCOME>
<PROPERTY>position = (150,50)</PROPERTY>
</VARIABLE>
<VARIABLE TYPE="nature">
<NAME>current_AC_bedroom</NAME>
<OUTCOME>off</OUTCOME>
<OUTCOME>standby</OUTCOME>
<OUTCOME>on</OUTCOME>
<PROPERTY>position = (200,50)</PROPERTY>
</VARIABLE>
<VARIABLE TYPE="nature">
<NAME>current_AC_livingroom</NAME>
<OUTCOME>off</OUTCOME>
<OUTCOME>standby</OUTCOME>
<OUTCOME>on</OUTCOME>
<PROPERTY>position = (250,50)</PROPERTY>
</VARIABLE>
<VARIABLE TYPE="nature">
<NAME>current_lamp_study</NAME>
<OUTCOME>off</OUTCOME>
<OUTCOME>standby</OUTCOME>
<OUTCOME>on</OUTCOME>
<PROPERTY>position = (300,50)</PROPERTY>
</VARIABLE>
<VARIABLE TYPE="nature">
<NAME>current_NB_study</NAME>
<OUTCOME>off</OUTCOME>
<OUTCOME>standby</OUTCOME>
<OUTCOME>on</OUTCOME>
<PROPERTY>position = (350,50)</PROPERTY>
</VARIABLE>
<VARIABLE TYPE="nature">
<NAME>current_nightlamp_bedroom</NAME>
<OUTCOME>off</OUTCOME>
<OUTCOME>standby</OUTCOME>
<OUTCOME>on</OUTCOME>
<PROPERTY>position = (400,50)</PROPERTY>
</VARIABLE>
<VARIABLE TYPE="nature">
<NAME>people_hallway</NAME>
<OUTCOME>off</OUTCOME>
<OUTCOME>on</OUTCOME>
<PROPERTY>position = (450,50)</PROPERTY>
</VARIABLE>
<VARIABLE TYPE="nature">
<NAME>people_livingroom</NAME>
<OUTCOME>off</OUTCOME>
<OUTCOME>on</OUTCOME>
<PROPERTY>position = (0,100)</PROPERTY>
</VARIABLE>
<VARIABLE TYPE="nature">
<NAME>people_bedroom</NAME>
<OUTCOME>off</OUTCOME>
<OUTCOME>on</OUTCOME>
<PROPERTY>position = (50,100)</PROPERTY>
</VARIABLE>
<VARIABLE TYPE="nature">
<NAME>people_kitchen</NAME>
<OUTCOME>off</OUTCOME>
<OUTCOME>on</OUTCOME>
<PROPERTY>position = (100,100)</PROPERTY>
</VARIABLE>
<VARIABLE TYPE="nature">
<NAME>people_study</NAME>
<OUTCOME>off</OUTCOME>
<OUTCOME>on</OUTCOME>
<PROPERTY>position = (150,100)</PROPERTY>
</VARIABLE>
<VARIABLE TYPE="nature">
<NAME>class</NAME>
<OUTCOME>OtherActivity</OUTCOME>
<OUTCOME>g1-8</OUTCOME>
<PROPERTY>position = (200,100)</PROPERTY>
</VARIABLE>
<DEFINITION>
<FOR>light_livingroom</FOR>
<GIVEN>class</GIVEN>
<TABLE>
0.6276836158192091 0.37231638418079094 
0.8523035230352304 0.14769647696476965 
</TABLE>
</DEFINITION>
<DEFINITION>
<FOR>light_hallway</FOR>
<GIVEN>class</GIVEN>
<TABLE>
0.9998116760828625 1.8832391713747646E-4 
0.9986449864498645 0.0013550135501355014 
</TABLE>
</DEFINITION>
<DEFINITION>
<FOR>light_bedroom</FOR>
<GIVEN>class</GIVEN>
<TABLE>
0.9365348399246705 0.06346516007532957 
0.9986449864498645 0.0013550135501355014 
</TABLE>
</DEFINITION>
<DEFINITION>
<FOR>light_kitchen</FOR>
<GIVEN>class</GIVEN>
<TABLE>
0.9994350282485875 5.649717514124294E-4 
0.012195121951219513 0.9878048780487805 
</TABLE>
</DEFINITION>
<DEFINITION>
<FOR>light_study</FOR>
<GIVEN>class</GIVEN>
<TABLE>
0.8416195856873823 0.1583804143126177 
0.9986449864498645 0.0013550135501355014 
</TABLE>
</DEFINITION>
<DEFINITION>
<FOR>switch_door_hallway</FOR>
<GIVEN>class</GIVEN>
<TABLE>
0.05894538606403013 0.9410546139359699 
0.08265582655826559 0.9173441734417345 
</TABLE>
</DEFINITION>
<DEFINITION>
<FOR>audio_livingroom</FOR>
<GIVEN>class</GIVEN>
<TABLE>
0.803201506591337 0.1967984934086629 
0.9986449864498645 0.0013550135501355014 
</TABLE>
</DEFINITION>
<DEFINITION>
<FOR>current_watercoldfan_livingroom</FOR>
<GIVEN>class</GIVEN>
<TABLE>
1.8828845791752966E-4 0.9216720015063077 0.0781397100357748 
0.0013531799729364006 0.9972936400541272 0.0013531799729364006 
</TABLE>
</DEFINITION>
<DEFINITION>
<FOR>current_lamp_bedroom</FOR>
<GIVEN>class</GIVEN>
<TABLE>
0.999623423084165 1.8828845791752966E-4 1.8828845791752966E-4 
0.9972936400541272 0.0013531799729364006 0.0013531799729364006 
</TABLE>
</DEFINITION>
<DEFINITION>
<FOR>current_PC_bedroom</FOR>
<GIVEN>class</GIVEN>
<TABLE>
1.8828845791752966E-4 0.8768593485219356 0.12295236302014687 
0.0013531799729364006 0.9972936400541272 0.0013531799729364006 
</TABLE>
</DEFINITION>
<DEFINITION>
<FOR>current_TV_livingroom</FOR>
<GIVEN>class</GIVEN>
<TABLE>
0.759367350781397 1.8828845791752966E-4 0.24044436076068537 
0.8836265223274695 0.0013531799729364006 0.11502029769959404 
</TABLE>
</DEFINITION>
<DEFINITION>
<FOR>current_lamp_livingroom</FOR>
<GIVEN>class</GIVEN>
<TABLE>
0.9058557710412352 1.8828845791752966E-4 0.0939559405008473 
0.9648173207036536 0.0013531799729364006 0.03382949932341001 
</TABLE>
</DEFINITION>
<DEFINITION>
<FOR>current_xbox_livingroom</FOR>
<GIVEN>class</GIVEN>
<TABLE>
0.46827339484089625 0.46827339484089625 0.0634532103182075 
0.4993234100135318 0.4993234100135318 0.0013531799729364006 
</TABLE>
</DEFINITION>
<DEFINITION>
<FOR>current_microwave_kitchen</FOR>
<GIVEN>class</GIVEN>
<TABLE>
9.414422895876483E-4 0.9988702692524948 1.8828845791752966E-4 
0.0013531799729364006 0.03382949932341001 0.9648173207036536 
</TABLE>
</DEFINITION>
<DEFINITION>
<FOR>current_AC_bedroom</FOR>
<GIVEN>class</GIVEN>
<TABLE>
0.07399736396158915 0.9258143475804933 1.8828845791752966E-4 
0.0013531799729364006 0.9972936400541272 0.0013531799729364006 
</TABLE>
</DEFINITION>
<DEFINITION>
<FOR>current_AC_livingroom</FOR>
<GIVEN>class</GIVEN>
<TABLE>
1.8828845791752966E-4 0.9838071926190924 0.01600451892299002 
0.0013531799729364006 0.9972936400541272 0.0013531799729364006 
</TABLE>
</DEFINITION>
<DEFINITION>
<FOR>current_lamp_study</FOR>
<GIVEN>class</GIVEN>
<TABLE>
0.8828845791752965 1.8828845791752966E-4 0.11692713236678591 
0.9972936400541272 0.0013531799729364006 0.0013531799729364006 
</TABLE>
</DEFINITION>
<DEFINITION>
<FOR>current_NB_study</FOR>
<GIVEN>class</GIVEN>
<TABLE>
1.8828845791752966E-4 0.9054791941254001 0.09433251741668236 
0.0013531799729364006 0.9972936400541272 0.0013531799729364006 
</TABLE>
</DEFINITION>
<DEFINITION>
<FOR>current_nightlamp_bedroom</FOR>
<GIVEN>class</GIVEN>
<TABLE>
0.7171907362078704 1.8828845791752966E-4 0.282620975334212 
0.9106901217861976 0.0013531799729364006 0.08795669824086604 
</TABLE>
</DEFINITION>
<DEFINITION>
<FOR>people_hallway</FOR>
<GIVEN>class</GIVEN>
<TABLE>
0.9998116760828625 1.8832391713747646E-4 
0.9986449864498645 0.0013550135501355014 
</TABLE>
</DEFINITION>
<DEFINITION>
<FOR>people_livingroom</FOR>
<GIVEN>class</GIVEN>
<TABLE>
0.6254237288135593 0.37457627118644066 
0.8523035230352304 0.14769647696476965 
</TABLE>
</DEFINITION>
<DEFINITION>
<FOR>people_bedroom</FOR>
<GIVEN>class</GIVEN>
<TABLE>
0.6111111111111112 0.3888888888888889 
0.9119241192411924 0.08807588075880758 
</TABLE>
</DEFINITION>
<DEFINITION>
<FOR>people_kitchen</FOR>
<GIVEN>class</GIVEN>
<TABLE>
0.9998116760828625 1.8832391713747646E-4 
0.0013550135501355014 0.9986449864498645 
</TABLE>
</DEFINITION>
<DEFINITION>
<FOR>people_study</FOR>
<GIVEN>class</GIVEN>
<TABLE>
0.811487758945386 0.18851224105461395 
0.9986449864498645 0.0013550135501355014 
</TABLE>
</DEFINITION>
<DEFINITION>
<FOR>class</FOR>
<TABLE>
0.8781012239497188 0.12189877605028118 
</TABLE>
</DEFINITION>
</NETWORK>
</BIF>
