<?xml version="1.0"?>
<!-- DTD for the XMLBIF 0.3 format -->
<!DOCTYPE BIF [
	<!ELEMENT BIF ( NETWORK )*>
	      <!ATTLIST BIF VERSION CDATA #REQUIRED>
	<!ELEMENT NETWORK ( NAME, ( PROPERTY | VARIABLE | DEFINITION )* )>
	<!ELEMENT NAME (#PCDATA)>
	<!ELEMENT VARIABLE ( NAME, ( OUTCOME |  PROPERTY )* ) >
	      <!ATTLIST VARIABLE TYPE (nature|decision|utility) "nature">
	<!ELEMENT OUTCOME (#PCDATA)>
	<!ELEMENT DEFINITION ( FOR | GIVEN | TABLE | PROPERTY )* >
	<!ELEMENT FOR (#PCDATA)>
	<!ELEMENT GIVEN (#PCDATA)>
	<!ELEMENT TABLE (#PCDATA)>
	<!ELEMENT PROPERTY (#PCDATA)>
]>


<BIF VERSION="0.3">
<NETWORK>
<NAME>TrainingData_g1-1</NAME>
<VARIABLE TYPE="nature">
<NAME>light_livingroom</NAME>
<OUTCOME>off</OUTCOME>
<OUTCOME>on</OUTCOME>
<PROPERTY>position = (0,0)</PROPERTY>
</VARIABLE>
<VARIABLE TYPE="nature">
<NAME>light_hallway</NAME>
<OUTCOME>off</OUTCOME>
<OUTCOME>on</OUTCOME>
<PROPERTY>position = (50,0)</PROPERTY>
</VARIABLE>
<VARIABLE TYPE="nature">
<NAME>light_bedroom</NAME>
<OUTCOME>off</OUTCOME>
<OUTCOME>on</OUTCOME>
<PROPERTY>position = (100,0)</PROPERTY>
</VARIABLE>
<VARIABLE TYPE="nature">
<NAME>light_kitchen</NAME>
<OUTCOME>off</OUTCOME>
<OUTCOME>on</OUTCOME>
<PROPERTY>position = (150,0)</PROPERTY>
</VARIABLE>
<VARIABLE TYPE="nature">
<NAME>light_study</NAME>
<OUTCOME>off</OUTCOME>
<OUTCOME>on</OUTCOME>
<PROPERTY>position = (200,0)</PROPERTY>
</VARIABLE>
<VARIABLE TYPE="nature">
<NAME>switch_door_hallway</NAME>
<OUTCOME>on</OUTCOME>
<OUTCOME>off</OUTCOME>
<PROPERTY>position = (250,0)</PROPERTY>
</VARIABLE>
<VARIABLE TYPE="nature">
<NAME>audio_livingroom</NAME>
<OUTCOME>off</OUTCOME>
<OUTCOME>on</OUTCOME>
<PROPERTY>position = (300,0)</PROPERTY>
</VARIABLE>
<VARIABLE TYPE="nature">
<NAME>current_watercoldfan_livingroom</NAME>
<OUTCOME>off</OUTCOME>
<OUTCOME>standby</OUTCOME>
<OUTCOME>on</OUTCOME>
<PROPERTY>position = (350,0)</PROPERTY>
</VARIABLE>
<VARIABLE TYPE="nature">
<NAME>current_lamp_bedroom</NAME>
<OUTCOME>off</OUTCOME>
<OUTCOME>standby</OUTCOME>
<OUTCOME>on</OUTCOME>
<PROPERTY>position = (400,0)</PROPERTY>
</VARIABLE>
<VARIABLE TYPE="nature">
<NAME>current_PC_bedroom</NAME>
<OUTCOME>off</OUTCOME>
<OUTCOME>standby</OUTCOME>
<OUTCOME>on</OUTCOME>
<PROPERTY>position = (450,0)</PROPERTY>
</VARIABLE>
<VARIABLE TYPE="nature">
<NAME>current_TV_livingroom</NAME>
<OUTCOME>off</OUTCOME>
<OUTCOME>standby</OUTCOME>
<OUTCOME>on</OUTCOME>
<PROPERTY>position = (0,50)</PROPERTY>
</VARIABLE>
<VARIABLE TYPE="nature">
<NAME>current_lamp_livingroom</NAME>
<OUTCOME>off</OUTCOME>
<OUTCOME>standby</OUTCOME>
<OUTCOME>on</OUTCOME>
<PROPERTY>position = (50,50)</PROPERTY>
</VARIABLE>
<VARIABLE TYPE="nature">
<NAME>current_xbox_livingroom</NAME>
<OUTCOME>off</OUTCOME>
<OUTCOME>standby</OUTCOME>
<OUTCOME>on</OUTCOME>
<PROPERTY>position = (100,50)</PROPERTY>
</VARIABLE>
<VARIABLE TYPE="nature">
<NAME>current_microwave_kitchen</NAME>
<OUTCOME>off</OUTCOME>
<OUTCOME>standby</OUTCOME>
<OUTCOME>on</OUTCOME>
<PROPERTY>position = (150,50)</PROPERTY>
</VARIABLE>
<VARIABLE TYPE="nature">
<NAME>current_AC_bedroom</NAME>
<OUTCOME>off</OUTCOME>
<OUTCOME>standby</OUTCOME>
<OUTCOME>on</OUTCOME>
<PROPERTY>position = (200,50)</PROPERTY>
</VARIABLE>
<VARIABLE TYPE="nature">
<NAME>current_AC_livingroom</NAME>
<OUTCOME>off</OUTCOME>
<OUTCOME>standby</OUTCOME>
<OUTCOME>on</OUTCOME>
<PROPERTY>position = (250,50)</PROPERTY>
</VARIABLE>
<VARIABLE TYPE="nature">
<NAME>current_lamp_study</NAME>
<OUTCOME>off</OUTCOME>
<OUTCOME>standby</OUTCOME>
<OUTCOME>on</OUTCOME>
<PROPERTY>position = (300,50)</PROPERTY>
</VARIABLE>
<VARIABLE TYPE="nature">
<NAME>current_NB_study</NAME>
<OUTCOME>off</OUTCOME>
<OUTCOME>standby</OUTCOME>
<OUTCOME>on</OUTCOME>
<PROPERTY>position = (350,50)</PROPERTY>
</VARIABLE>
<VARIABLE TYPE="nature">
<NAME>current_nightlamp_bedroom</NAME>
<OUTCOME>off</OUTCOME>
<OUTCOME>standby</OUTCOME>
<OUTCOME>on</OUTCOME>
<PROPERTY>position = (400,50)</PROPERTY>
</VARIABLE>
<VARIABLE TYPE="nature">
<NAME>people_hallway</NAME>
<OUTCOME>off</OUTCOME>
<OUTCOME>on</OUTCOME>
<PROPERTY>position = (450,50)</PROPERTY>
</VARIABLE>
<VARIABLE TYPE="nature">
<NAME>people_livingroom</NAME>
<OUTCOME>off</OUTCOME>
<OUTCOME>on</OUTCOME>
<PROPERTY>position = (0,100)</PROPERTY>
</VARIABLE>
<VARIABLE TYPE="nature">
<NAME>people_bedroom</NAME>
<OUTCOME>off</OUTCOME>
<OUTCOME>on</OUTCOME>
<PROPERTY>position = (50,100)</PROPERTY>
</VARIABLE>
<VARIABLE TYPE="nature">
<NAME>people_kitchen</NAME>
<OUTCOME>off</OUTCOME>
<OUTCOME>on</OUTCOME>
<PROPERTY>position = (100,100)</PROPERTY>
</VARIABLE>
<VARIABLE TYPE="nature">
<NAME>people_study</NAME>
<OUTCOME>off</OUTCOME>
<OUTCOME>on</OUTCOME>
<PROPERTY>position = (150,100)</PROPERTY>
</VARIABLE>
<VARIABLE TYPE="nature">
<NAME>class</NAME>
<OUTCOME>OtherActivity</OUTCOME>
<OUTCOME>g1-1</OUTCOME>
<PROPERTY>position = (200,100)</PROPERTY>
</VARIABLE>
<DEFINITION>
<FOR>light_livingroom</FOR>
<GIVEN>class</GIVEN>
<TABLE>
0.7868494239173619 0.21315057608263807 
1.2348728081007656E-4 0.9998765127191899 
</TABLE>
</DEFINITION>
<DEFINITION>
<FOR>light_hallway</FOR>
<GIVEN>class</GIVEN>
<TABLE>
0.9998013508144616 1.986491855383393E-4 
0.9998765127191899 1.2348728081007656E-4 
</TABLE>
</DEFINITION>
<DEFINITION>
<FOR>light_bedroom</FOR>
<GIVEN>class</GIVEN>
<TABLE>
0.9394119984108065 0.06058800158919348 
0.9682637688318103 0.031736231168189674 
</TABLE>
</DEFINITION>
<DEFINITION>
<FOR>light_kitchen</FOR>
<GIVEN>class</GIVEN>
<TABLE>
0.8714739769566945 0.12852602304330552 
0.9168930600148185 0.08310693998518152 
</TABLE>
</DEFINITION>
<DEFINITION>
<FOR>light_study</FOR>
<GIVEN>class</GIVEN>
<TABLE>
0.8329360349622567 0.16706396503774334 
0.9998765127191899 1.2348728081007656E-4 
</TABLE>
</DEFINITION>
<DEFINITION>
<FOR>switch_door_hallway</FOR>
<GIVEN>class</GIVEN>
<TABLE>
0.05502582439411998 0.94497417560588 
0.09496171894294887 0.9050382810570511 
</TABLE>
</DEFINITION>
<DEFINITION>
<FOR>audio_livingroom</FOR>
<GIVEN>class</GIVEN>
<TABLE>
0.8917361938816051 0.10826380611839491 
0.5059273894788837 0.49407261052111634 
</TABLE>
</DEFINITION>
<DEFINITION>
<FOR>current_watercoldfan_livingroom</FOR>
<GIVEN>class</GIVEN>
<TABLE>
1.9860973187686197E-4 0.9300893743793446 0.06971201588877855 
1.2347203358439315E-4 0.9365353747376219 0.06334115322879368 
</TABLE>
</DEFINITION>
<DEFINITION>
<FOR>current_lamp_bedroom</FOR>
<GIVEN>class</GIVEN>
<TABLE>
0.9996027805362463 1.9860973187686197E-4 1.9860973187686197E-4 
0.9997530559328313 1.2347203358439315E-4 1.2347203358439315E-4 
</TABLE>
</DEFINITION>
<DEFINITION>
<FOR>current_PC_bedroom</FOR>
<GIVEN>class</GIVEN>
<TABLE>
1.9860973187686197E-4 0.8828202581926514 0.1169811320754717 
1.2347203358439315E-4 0.9365353747376219 0.06334115322879368 
</TABLE>
</DEFINITION>
<DEFINITION>
<FOR>current_TV_livingroom</FOR>
<GIVEN>class</GIVEN>
<TABLE>
0.9304865938430983 1.9860973187686197E-4 0.06931479642502483 
1.2347203358439315E-4 1.2347203358439315E-4 0.9997530559328313 
</TABLE>
</DEFINITION>
<DEFINITION>
<FOR>current_lamp_livingroom</FOR>
<GIVEN>class</GIVEN>
<TABLE>
0.9126117179741807 1.9860973187686197E-4 0.08718967229394241 
0.916779849364119 1.2347203358439315E-4 0.08309667860229658 
</TABLE>
</DEFINITION>
<DEFINITION>
<FOR>current_xbox_livingroom</FOR>
<GIVEN>class</GIVEN>
<TABLE>
0.46653426017874877 0.46653426017874877 0.06693147964250248 
0.4999382639832078 0.4999382639832078 1.2347203358439315E-4 
</TABLE>
</DEFINITION>
<DEFINITION>
<FOR>current_microwave_kitchen</FOR>
<GIVEN>class</GIVEN>
<TABLE>
9.930486593843098E-4 0.8740814299900695 0.12492552135054617 
1.2347203358439315E-4 0.916779849364119 0.08309667860229658 
</TABLE>
</DEFINITION>
<DEFINITION>
<FOR>current_AC_bedroom</FOR>
<GIVEN>class</GIVEN>
<TABLE>
0.05978152929493545 0.9400198609731877 1.9860973187686197E-4 
0.09099888875169775 0.9088776392147179 1.2347203358439315E-4 
</TABLE>
</DEFINITION>
<DEFINITION>
<FOR>current_AC_livingroom</FOR>
<GIVEN>class</GIVEN>
<TABLE>
1.9860973187686197E-4 0.9996027805362463 1.9860973187686197E-4 
1.2347203358439315E-4 0.916779849364119 0.08309667860229658 
</TABLE>
</DEFINITION>
<DEFINITION>
<FOR>current_lamp_study</FOR>
<GIVEN>class</GIVEN>
<TABLE>
0.8764647467725919 1.9860973187686197E-4 0.12333664349553128 
0.9997530559328313 1.2347203358439315E-4 1.2347203358439315E-4 
</TABLE>
</DEFINITION>
<DEFINITION>
<FOR>current_NB_study</FOR>
<GIVEN>class</GIVEN>
<TABLE>
1.9860973187686197E-4 0.9002979145978153 0.09950347567030784 
1.2347203358439315E-4 0.9997530559328313 1.2347203358439315E-4 
</TABLE>
</DEFINITION>
<DEFINITION>
<FOR>current_nightlamp_bedroom</FOR>
<GIVEN>class</GIVEN>
<TABLE>
0.7072492552135055 1.9860973187686197E-4 0.2925521350546177 
0.9088776392147179 1.2347203358439315E-4 0.09099888875169775 
</TABLE>
</DEFINITION>
<DEFINITION>
<FOR>people_hallway</FOR>
<GIVEN>class</GIVEN>
<TABLE>
0.9998013508144616 1.986491855383393E-4 
0.9998765127191899 1.2348728081007656E-4 
</TABLE>
</DEFINITION>
<DEFINITION>
<FOR>people_livingroom</FOR>
<GIVEN>class</GIVEN>
<TABLE>
0.7844656336909018 0.21553436630909814 
1.2348728081007656E-4 0.9998765127191899 
</TABLE>
</DEFINITION>
<DEFINITION>
<FOR>people_bedroom</FOR>
<GIVEN>class</GIVEN>
<TABLE>
0.6080651569328566 0.39193484306714343 
0.8457643862682144 0.15423561373178563 
</TABLE>
</DEFINITION>
<DEFINITION>
<FOR>people_kitchen</FOR>
<GIVEN>class</GIVEN>
<TABLE>
0.8702820818434645 0.12971791815653555 
0.9168930600148185 0.08310693998518152 
</TABLE>
</DEFINITION>
<DEFINITION>
<FOR>people_study</FOR>
<GIVEN>class</GIVEN>
<TABLE>
0.8011521652761223 0.19884783472387763 
0.9998765127191899 1.2348728081007656E-4 
</TABLE>
</DEFINITION>
<DEFINITION>
<FOR>class</FOR>
<TABLE>
0.38332063975628333 0.6166793602437167 
</TABLE>
</DEFINITION>
</NETWORK>
</BIF>
