<?xml version="1.0"?>
<!-- DTD for the XMLBIF 0.3 format -->
<!DOCTYPE BIF [
	<!ELEMENT BIF ( NETWORK )*>
	      <!ATTLIST BIF VERSION CDATA #REQUIRED>
	<!ELEMENT NETWORK ( NAME, ( PROPERTY | VARIABLE | DEFINITION )* )>
	<!ELEMENT NAME (#PCDATA)>
	<!ELEMENT VARIABLE ( NAME, ( OUTCOME |  PROPERTY )* ) >
	      <!ATTLIST VARIABLE TYPE (nature|decision|utility) "nature">
	<!ELEMENT OUTCOME (#PCDATA)>
	<!ELEMENT DEFINITION ( FOR | GIVEN | TABLE | PROPERTY )* >
	<!ELEMENT FOR (#PCDATA)>
	<!ELEMENT GIVEN (#PCDATA)>
	<!ELEMENT TABLE (#PCDATA)>
	<!ELEMENT PROPERTY (#PCDATA)>
]>


<BIF VERSION="0.3">
<NETWORK>
<NAME>TrainingData_g1-9</NAME>
<VARIABLE TYPE="nature">
<NAME>light_livingroom</NAME>
<OUTCOME>off</OUTCOME>
<OUTCOME>on</OUTCOME>
<PROPERTY>position = (0,0)</PROPERTY>
</VARIABLE>
<VARIABLE TYPE="nature">
<NAME>light_hallway</NAME>
<OUTCOME>off</OUTCOME>
<OUTCOME>on</OUTCOME>
<PROPERTY>position = (50,0)</PROPERTY>
</VARIABLE>
<VARIABLE TYPE="nature">
<NAME>light_bedroom</NAME>
<OUTCOME>off</OUTCOME>
<OUTCOME>on</OUTCOME>
<PROPERTY>position = (100,0)</PROPERTY>
</VARIABLE>
<VARIABLE TYPE="nature">
<NAME>light_kitchen</NAME>
<OUTCOME>off</OUTCOME>
<OUTCOME>on</OUTCOME>
<PROPERTY>position = (150,0)</PROPERTY>
</VARIABLE>
<VARIABLE TYPE="nature">
<NAME>light_study</NAME>
<OUTCOME>off</OUTCOME>
<OUTCOME>on</OUTCOME>
<PROPERTY>position = (200,0)</PROPERTY>
</VARIABLE>
<VARIABLE TYPE="nature">
<NAME>switch_door_hallway</NAME>
<OUTCOME>on</OUTCOME>
<OUTCOME>off</OUTCOME>
<PROPERTY>position = (250,0)</PROPERTY>
</VARIABLE>
<VARIABLE TYPE="nature">
<NAME>audio_livingroom</NAME>
<OUTCOME>off</OUTCOME>
<OUTCOME>on</OUTCOME>
<PROPERTY>position = (300,0)</PROPERTY>
</VARIABLE>
<VARIABLE TYPE="nature">
<NAME>current_watercoldfan_livingroom</NAME>
<OUTCOME>off</OUTCOME>
<OUTCOME>standby</OUTCOME>
<OUTCOME>on</OUTCOME>
<PROPERTY>position = (350,0)</PROPERTY>
</VARIABLE>
<VARIABLE TYPE="nature">
<NAME>current_lamp_bedroom</NAME>
<OUTCOME>off</OUTCOME>
<OUTCOME>standby</OUTCOME>
<OUTCOME>on</OUTCOME>
<PROPERTY>position = (400,0)</PROPERTY>
</VARIABLE>
<VARIABLE TYPE="nature">
<NAME>current_PC_bedroom</NAME>
<OUTCOME>off</OUTCOME>
<OUTCOME>standby</OUTCOME>
<OUTCOME>on</OUTCOME>
<PROPERTY>position = (450,0)</PROPERTY>
</VARIABLE>
<VARIABLE TYPE="nature">
<NAME>current_TV_livingroom</NAME>
<OUTCOME>off</OUTCOME>
<OUTCOME>standby</OUTCOME>
<OUTCOME>on</OUTCOME>
<PROPERTY>position = (0,50)</PROPERTY>
</VARIABLE>
<VARIABLE TYPE="nature">
<NAME>current_lamp_livingroom</NAME>
<OUTCOME>off</OUTCOME>
<OUTCOME>standby</OUTCOME>
<OUTCOME>on</OUTCOME>
<PROPERTY>position = (50,50)</PROPERTY>
</VARIABLE>
<VARIABLE TYPE="nature">
<NAME>current_xbox_livingroom</NAME>
<OUTCOME>off</OUTCOME>
<OUTCOME>standby</OUTCOME>
<OUTCOME>on</OUTCOME>
<PROPERTY>position = (100,50)</PROPERTY>
</VARIABLE>
<VARIABLE TYPE="nature">
<NAME>current_microwave_kitchen</NAME>
<OUTCOME>off</OUTCOME>
<OUTCOME>standby</OUTCOME>
<OUTCOME>on</OUTCOME>
<PROPERTY>position = (150,50)</PROPERTY>
</VARIABLE>
<VARIABLE TYPE="nature">
<NAME>current_AC_bedroom</NAME>
<OUTCOME>off</OUTCOME>
<OUTCOME>standby</OUTCOME>
<OUTCOME>on</OUTCOME>
<PROPERTY>position = (200,50)</PROPERTY>
</VARIABLE>
<VARIABLE TYPE="nature">
<NAME>current_AC_livingroom</NAME>
<OUTCOME>off</OUTCOME>
<OUTCOME>standby</OUTCOME>
<OUTCOME>on</OUTCOME>
<PROPERTY>position = (250,50)</PROPERTY>
</VARIABLE>
<VARIABLE TYPE="nature">
<NAME>current_lamp_study</NAME>
<OUTCOME>off</OUTCOME>
<OUTCOME>standby</OUTCOME>
<OUTCOME>on</OUTCOME>
<PROPERTY>position = (300,50)</PROPERTY>
</VARIABLE>
<VARIABLE TYPE="nature">
<NAME>current_NB_study</NAME>
<OUTCOME>off</OUTCOME>
<OUTCOME>standby</OUTCOME>
<OUTCOME>on</OUTCOME>
<PROPERTY>position = (350,50)</PROPERTY>
</VARIABLE>
<VARIABLE TYPE="nature">
<NAME>current_nightlamp_bedroom</NAME>
<OUTCOME>off</OUTCOME>
<OUTCOME>standby</OUTCOME>
<OUTCOME>on</OUTCOME>
<PROPERTY>position = (400,50)</PROPERTY>
</VARIABLE>
<VARIABLE TYPE="nature">
<NAME>people_hallway</NAME>
<OUTCOME>off</OUTCOME>
<OUTCOME>on</OUTCOME>
<PROPERTY>position = (450,50)</PROPERTY>
</VARIABLE>
<VARIABLE TYPE="nature">
<NAME>people_livingroom</NAME>
<OUTCOME>off</OUTCOME>
<OUTCOME>on</OUTCOME>
<PROPERTY>position = (0,100)</PROPERTY>
</VARIABLE>
<VARIABLE TYPE="nature">
<NAME>people_bedroom</NAME>
<OUTCOME>off</OUTCOME>
<OUTCOME>on</OUTCOME>
<PROPERTY>position = (50,100)</PROPERTY>
</VARIABLE>
<VARIABLE TYPE="nature">
<NAME>people_kitchen</NAME>
<OUTCOME>off</OUTCOME>
<OUTCOME>on</OUTCOME>
<PROPERTY>position = (100,100)</PROPERTY>
</VARIABLE>
<VARIABLE TYPE="nature">
<NAME>people_study</NAME>
<OUTCOME>off</OUTCOME>
<OUTCOME>on</OUTCOME>
<PROPERTY>position = (150,100)</PROPERTY>
</VARIABLE>
<VARIABLE TYPE="nature">
<NAME>class</NAME>
<OUTCOME>OtherActivity</OUTCOME>
<OUTCOME>g1-9</OUTCOME>
<PROPERTY>position = (200,100)</PROPERTY>
</VARIABLE>
<DEFINITION>
<FOR>light_livingroom</FOR>
<GIVEN>class</GIVEN>
<TABLE>
0.6276010993325482 0.3723989006674519 
0.8023622047244094 0.19763779527559056 
</TABLE>
</DEFINITION>
<DEFINITION>
<FOR>light_hallway</FOR>
<GIVEN>class</GIVEN>
<TABLE>
0.9998036906164115 1.9630938358853554E-4 
0.9997375328083989 2.6246719160104987E-4 
</TABLE>
</DEFINITION>
<DEFINITION>
<FOR>light_bedroom</FOR>
<GIVEN>class</GIVEN>
<TABLE>
0.9424813506085591 0.05751864939144091 
0.9535433070866142 0.046456692913385826 
</TABLE>
</DEFINITION>
<DEFINITION>
<FOR>light_kitchen</FOR>
<GIVEN>class</GIVEN>
<TABLE>
0.8690616411464468 0.1309383588535532 
0.9325459317585302 0.06745406824146982 
</TABLE>
</DEFINITION>
<DEFINITION>
<FOR>light_study</FOR>
<GIVEN>class</GIVEN>
<TABLE>
0.8349038084020416 0.16509619159795838 
0.9997375328083989 2.6246719160104987E-4 
</TABLE>
</DEFINITION>
<DEFINITION>
<FOR>switch_door_hallway</FOR>
<GIVEN>class</GIVEN>
<TABLE>
0.07322340007852375 0.9267765999214762 
2.6246719160104987E-4 0.9997375328083989 
</TABLE>
</DEFINITION>
<DEFINITION>
<FOR>audio_livingroom</FOR>
<GIVEN>class</GIVEN>
<TABLE>
0.8105614448370632 0.18943855516293678 
0.915748031496063 0.08425196850393701 
</TABLE>
</DEFINITION>
<DEFINITION>
<FOR>current_watercoldfan_livingroom</FOR>
<GIVEN>class</GIVEN>
<TABLE>
1.9627085377821394E-4 0.918351324828263 0.08145240431795878 
2.623983206507478E-4 0.9994752033586985 2.623983206507478E-4 
</TABLE>
</DEFINITION>
<DEFINITION>
<FOR>current_lamp_bedroom</FOR>
<GIVEN>class</GIVEN>
<TABLE>
0.9996074582924436 1.9627085377821394E-4 1.9627085377821394E-4 
0.9994752033586985 2.623983206507478E-4 2.623983206507478E-4 
</TABLE>
</DEFINITION>
<DEFINITION>
<FOR>current_PC_bedroom</FOR>
<GIVEN>class</GIVEN>
<TABLE>
1.9627085377821394E-4 0.8889106967615309 0.11089303238469088 
2.623983206507478E-4 0.9071109944896353 0.09262660718971398 
</TABLE>
</DEFINITION>
<DEFINITION>
<FOR>current_TV_livingroom</FOR>
<GIVEN>class</GIVEN>
<TABLE>
0.7570166830225712 1.9627085377821394E-4 0.24278704612365065 
0.8693256363159276 2.623983206507478E-4 0.13041196536342167 
</TABLE>
</DEFINITION>
<DEFINITION>
<FOR>current_lamp_livingroom</FOR>
<GIVEN>class</GIVEN>
<TABLE>
0.9097154072620216 1.9627085377821394E-4 0.0900883218842002 
0.932301233272107 2.623983206507478E-4 0.0674363684072422 
</TABLE>
</DEFINITION>
<DEFINITION>
<FOR>current_xbox_livingroom</FOR>
<GIVEN>class</GIVEN>
<TABLE>
0.47006869479882235 0.47006869479882235 0.05986261040235525 
0.48307530831802675 0.48307530831802675 0.033849383363946474 
</TABLE>
</DEFINITION>
<DEFINITION>
<FOR>current_microwave_kitchen</FOR>
<GIVEN>class</GIVEN>
<TABLE>
9.813542688910696E-4 0.8716388616290481 0.12737978410206086 
2.623983206507478E-4 0.932301233272107 0.0674363684072422 
</TABLE>
</DEFINITION>
<DEFINITION>
<FOR>current_AC_bedroom</FOR>
<GIVEN>class</GIVEN>
<TABLE>
0.040235525024533855 0.959568204121688 1.9627085377821394E-4 
0.19758593545001313 0.8021516662293361 2.623983206507478E-4 
</TABLE>
</DEFINITION>
<DEFINITION>
<FOR>current_AC_livingroom</FOR>
<GIVEN>class</GIVEN>
<TABLE>
1.9627085377821394E-4 0.9831207065750736 0.016683022571148183 
2.623983206507478E-4 0.9994752033586985 2.623983206507478E-4 
</TABLE>
</DEFINITION>
<DEFINITION>
<FOR>current_lamp_study</FOR>
<GIVEN>class</GIVEN>
<TABLE>
0.877919528949951 1.9627085377821394E-4 0.12188420019627086 
0.9994752033586985 2.623983206507478E-4 2.623983206507478E-4 
</TABLE>
</DEFINITION>
<DEFINITION>
<FOR>current_NB_study</FOR>
<GIVEN>class</GIVEN>
<TABLE>
1.9627085377821394E-4 0.9014720314033366 0.09833169774288518 
2.623983206507478E-4 0.9994752033586985 2.623983206507478E-4 
</TABLE>
</DEFINITION>
<DEFINITION>
<FOR>current_nightlamp_bedroom</FOR>
<GIVEN>class</GIVEN>
<TABLE>
0.8794896957801767 1.9627085377821394E-4 0.12031403336604514 
2.623983206507478E-4 2.623983206507478E-4 0.9994752033586985 
</TABLE>
</DEFINITION>
<DEFINITION>
<FOR>people_hallway</FOR>
<GIVEN>class</GIVEN>
<TABLE>
0.9998036906164115 1.9630938358853554E-4 
0.9997375328083989 2.6246719160104987E-4 
</TABLE>
</DEFINITION>
<DEFINITION>
<FOR>people_livingroom</FOR>
<GIVEN>class</GIVEN>
<TABLE>
0.6252453867294857 0.37475461327051435 
0.8023622047244094 0.19763779527559056 
</TABLE>
</DEFINITION>
<DEFINITION>
<FOR>people_bedroom</FOR>
<GIVEN>class</GIVEN>
<TABLE>
0.7689438555162936 0.23105614448370632 
2.6246719160104987E-4 0.9997375328083989 
</TABLE>
</DEFINITION>
<DEFINITION>
<FOR>people_kitchen</FOR>
<GIVEN>class</GIVEN>
<TABLE>
0.8678837848449156 0.13211621515508443 
0.9325459317585302 0.06745406824146982 
</TABLE>
</DEFINITION>
<DEFINITION>
<FOR>people_study</FOR>
<GIVEN>class</GIVEN>
<TABLE>
0.8034943070278759 0.19650569297212406 
0.9997375328083989 2.6246719160104987E-4 
</TABLE>
</DEFINITION>
<DEFINITION>
<FOR>class</FOR>
<TABLE>
0.5721186250280835 0.4278813749719164 
</TABLE>
</DEFINITION>
</NETWORK>
</BIF>
