<?xml version="1.0"?>
<!-- DTD for the XMLBIF 0.3 format -->
<!DOCTYPE BIF [
	<!ELEMENT BIF ( NETWORK )*>
	      <!ATTLIST BIF VERSION CDATA #REQUIRED>
	<!ELEMENT NETWORK ( NAME, ( PROPERTY | VARIABLE | DEFINITION )* )>
	<!ELEMENT NAME (#PCDATA)>
	<!ELEMENT VARIABLE ( NAME, ( OUTCOME |  PROPERTY )* ) >
	      <!ATTLIST VARIABLE TYPE (nature|decision|utility) "nature">
	<!ELEMENT OUTCOME (#PCDATA)>
	<!ELEMENT DEFINITION ( FOR | GIVEN | TABLE | PROPERTY )* >
	<!ELEMENT FOR (#PCDATA)>
	<!ELEMENT GIVEN (#PCDATA)>
	<!ELEMENT TABLE (#PCDATA)>
	<!ELEMENT PROPERTY (#PCDATA)>
]>


<BIF VERSION="0.3">
<NETWORK>
<NAME>TrainingData_g2-1-weka.filters.unsupervised.attribute.Remove-V-R8,15,19,22,25</NAME>
<VARIABLE TYPE="nature">
<NAME>current_watercoldfan_livingroom</NAME>
<OUTCOME>off</OUTCOME>
<OUTCOME>standby</OUTCOME>
<OUTCOME>on</OUTCOME>
<PROPERTY>position = (0,0)</PROPERTY>
</VARIABLE>
<VARIABLE TYPE="nature">
<NAME>current_AC_bedroom</NAME>
<OUTCOME>off</OUTCOME>
<OUTCOME>standby</OUTCOME>
<OUTCOME>on</OUTCOME>
<PROPERTY>position = (50,0)</PROPERTY>
</VARIABLE>
<VARIABLE TYPE="nature">
<NAME>current_nightlamp_bedroom</NAME>
<OUTCOME>off</OUTCOME>
<OUTCOME>standby</OUTCOME>
<OUTCOME>on</OUTCOME>
<PROPERTY>position = (100,0)</PROPERTY>
</VARIABLE>
<VARIABLE TYPE="nature">
<NAME>people_bedroom</NAME>
<OUTCOME>off</OUTCOME>
<OUTCOME>on</OUTCOME>
<PROPERTY>position = (150,0)</PROPERTY>
</VARIABLE>
<VARIABLE TYPE="nature">
<NAME>class</NAME>
<OUTCOME>OtherActivity</OUTCOME>
<OUTCOME>g2-1</OUTCOME>
<PROPERTY>position = (200,0)</PROPERTY>
</VARIABLE>
<DEFINITION>
<FOR>current_watercoldfan_livingroom</FOR>
<GIVEN>class</GIVEN>
<TABLE>
2.2306491188935982E-4 0.9072049966540263 0.09257193843408432 
1.5976993129892953E-4 0.9996804601374022 1.5976993129892953E-4 
</TABLE>
</DEFINITION>
<DEFINITION>
<FOR>current_AC_bedroom</FOR>
<GIVEN>class</GIVEN>
<TABLE>
0.04572830693731876 0.9540486281507918 2.2306491188935982E-4 
0.12030675826809395 0.8795334718006071 1.5976993129892953E-4 
</TABLE>
</DEFINITION>
<DEFINITION>
<FOR>current_nightlamp_bedroom</FOR>
<GIVEN>class</GIVEN>
<TABLE>
0.9995538701762213 2.2306491188935982E-4 2.2306491188935982E-4 
1.5976993129892953E-4 1.5976993129892953E-4 0.9996804601374022 
</TABLE>
</DEFINITION>
<DEFINITION>
<FOR>people_bedroom</FOR>
<GIVEN>class</GIVEN>
<TABLE>
0.8739402052655064 0.12605979473449352 
1.5979546180888463E-4 0.9998402045381911 
</TABLE>
</DEFINITION>
<DEFINITION>
<FOR>class</FOR>
<TABLE>
0.4173030359471037 0.5826969640528963 
</TABLE>
</DEFINITION>
</NETWORK>
</BIF>
