<?xml version="1.0"?>
<!-- DTD for the XMLBIF 0.3 format -->
<!DOCTYPE BIF [
	<!ELEMENT BIF ( NETWORK )*>
	      <!ATTLIST BIF VERSION CDATA #REQUIRED>
	<!ELEMENT NETWORK ( NAME, ( PROPERTY | VARIABLE | DEFINITION )* )>
	<!ELEMENT NAME (#PCDATA)>
	<!ELEMENT VARIABLE ( NAME, ( OUTCOME |  PROPERTY )* ) >
	      <!ATTLIST VARIABLE TYPE (nature|decision|utility) "nature">
	<!ELEMENT OUTCOME (#PCDATA)>
	<!ELEMENT DEFINITION ( FOR | GIVEN | TABLE | PROPERTY )* >
	<!ELEMENT FOR (#PCDATA)>
	<!ELEMENT GIVEN (#PCDATA)>
	<!ELEMENT TABLE (#PCDATA)>
	<!ELEMENT PROPERTY (#PCDATA)>
]>


<BIF VERSION="0.3">
<NETWORK>
<NAME>TrainingData_g2-11-weka.filters.unsupervised.attribute.Remove-V-R17-18,25</NAME>
<VARIABLE TYPE="nature">
<NAME>current_lamp_study</NAME>
<OUTCOME>off</OUTCOME>
<OUTCOME>standby</OUTCOME>
<OUTCOME>on</OUTCOME>
<PROPERTY>position = (0,0)</PROPERTY>
</VARIABLE>
<VARIABLE TYPE="nature">
<NAME>current_NB_study</NAME>
<OUTCOME>off</OUTCOME>
<OUTCOME>standby</OUTCOME>
<OUTCOME>on</OUTCOME>
<PROPERTY>position = (50,0)</PROPERTY>
</VARIABLE>
<VARIABLE TYPE="nature">
<NAME>class</NAME>
<OUTCOME>OtherActivity</OUTCOME>
<OUTCOME>g2-11</OUTCOME>
<PROPERTY>position = (100,0)</PROPERTY>
</VARIABLE>
<DEFINITION>
<FOR>current_lamp_study</FOR>
<GIVEN>class</GIVEN>
<TABLE>
0.9780061294393366 1.802776275464215E-4 0.021813592933117 
0.0019880715705765406 0.0019880715705765406 0.9960238568588469 
</TABLE>
</DEFINITION>
<DEFINITION>
<FOR>current_NB_study</FOR>
<GIVEN>class</GIVEN>
<TABLE>
1.802776275464215E-4 0.9095006309716964 0.09031909140075717 
0.0019880715705765406 0.9960238568588469 0.0019880715705765406 
</TABLE>
</DEFINITION>
<DEFINITION>
<FOR>class</FOR>
<TABLE>
0.9171352960635131 0.08286470393648693 
</TABLE>
</DEFINITION>
</NETWORK>
</BIF>
