<?xml version="1.0"?>
<!-- DTD for the XMLBIF 0.3 format -->
<!DOCTYPE BIF [
	<!ELEMENT BIF ( NETWORK )*>
	      <!ATTLIST BIF VERSION CDATA #REQUIRED>
	<!ELEMENT NETWORK ( NAME, ( PROPERTY | VARIABLE | DEFINITION )* )>
	<!ELEMENT NAME (#PCDATA)>
	<!ELEMENT VARIABLE ( NAME, ( OUTCOME |  PROPERTY )* ) >
	      <!ATTLIST VARIABLE TYPE (nature|decision|utility) "nature">
	<!ELEMENT OUTCOME (#PCDATA)>
	<!ELEMENT DEFINITION ( FOR | GIVEN | TABLE | PROPERTY )* >
	<!ELEMENT FOR (#PCDATA)>
	<!ELEMENT GIVEN (#PCDATA)>
	<!ELEMENT TABLE (#PCDATA)>
	<!ELEMENT PROPERTY (#PCDATA)>
]>


<BIF VERSION="0.3">
<NETWORK>
<NAME>TrainingData_g2-5-weka.filters.unsupervised.attribute.Remove-V-R1,10,12,15-16,25</NAME>
<VARIABLE TYPE="nature">
<NAME>light_livingroom</NAME>
<OUTCOME>off</OUTCOME>
<OUTCOME>on</OUTCOME>
<PROPERTY>position = (0,0)</PROPERTY>
</VARIABLE>
<VARIABLE TYPE="nature">
<NAME>current_PC_bedroom</NAME>
<OUTCOME>off</OUTCOME>
<OUTCOME>standby</OUTCOME>
<OUTCOME>on</OUTCOME>
<PROPERTY>position = (50,0)</PROPERTY>
</VARIABLE>
<VARIABLE TYPE="nature">
<NAME>current_lamp_livingroom</NAME>
<OUTCOME>off</OUTCOME>
<OUTCOME>standby</OUTCOME>
<OUTCOME>on</OUTCOME>
<PROPERTY>position = (100,0)</PROPERTY>
</VARIABLE>
<VARIABLE TYPE="nature">
<NAME>current_AC_bedroom</NAME>
<OUTCOME>off</OUTCOME>
<OUTCOME>standby</OUTCOME>
<OUTCOME>on</OUTCOME>
<PROPERTY>position = (150,0)</PROPERTY>
</VARIABLE>
<VARIABLE TYPE="nature">
<NAME>current_AC_livingroom</NAME>
<OUTCOME>off</OUTCOME>
<OUTCOME>standby</OUTCOME>
<OUTCOME>on</OUTCOME>
<PROPERTY>position = (200,0)</PROPERTY>
</VARIABLE>
<VARIABLE TYPE="nature">
<NAME>class</NAME>
<OUTCOME>OtherActivity</OUTCOME>
<OUTCOME>g2-5</OUTCOME>
<PROPERTY>position = (250,0)</PROPERTY>
</VARIABLE>
<DEFINITION>
<FOR>light_livingroom</FOR>
<GIVEN>class</GIVEN>
<TABLE>
0.7170528602461984 0.2829471397538016 
0.0019083969465648854 0.9980916030534351 
</TABLE>
</DEFINITION>
<DEFINITION>
<FOR>current_PC_bedroom</FOR>
<GIVEN>class</GIVEN>
<TABLE>
1.8099547511312217E-4 0.8816289592760181 0.11819004524886878 
0.0019047619047619048 0.9961904761904762 0.0019047619047619048 
</TABLE>
</DEFINITION>
<DEFINITION>
<FOR>current_lamp_livingroom</FOR>
<GIVEN>class</GIVEN>
<TABLE>
0.9996380090497737 1.8099547511312217E-4 1.8099547511312217E-4 
0.0019047619047619048 0.0019047619047619048 0.9961904761904762 
</TABLE>
</DEFINITION>
<DEFINITION>
<FOR>current_AC_bedroom</FOR>
<GIVEN>class</GIVEN>
<TABLE>
0.02262443438914027 0.9771945701357466 1.8099547511312217E-4 
0.5123809523809524 0.4857142857142857 0.0019047619047619048 
</TABLE>
</DEFINITION>
<DEFINITION>
<FOR>current_AC_livingroom</FOR>
<GIVEN>class</GIVEN>
<TABLE>
1.8099547511312217E-4 0.9996380090497737 1.8099547511312217E-4 
0.0019047619047619048 0.8361904761904762 0.1619047619047619 
</TABLE>
</DEFINITION>
<DEFINITION>
<FOR>class</FOR>
<TABLE>
0.9134965266291764 0.08650347337082369 
</TABLE>
</DEFINITION>
</NETWORK>
</BIF>
