<?xml version="1.0"?>
<!-- DTD for the XMLBIF 0.3 format -->
<!DOCTYPE BIF [
	<!ELEMENT BIF ( NETWORK )*>
	      <!ATTLIST BIF VERSION CDATA #REQUIRED>
	<!ELEMENT NETWORK ( NAME, ( PROPERTY | VARIABLE | DEFINITION )* )>
	<!ELEMENT NAME (#PCDATA)>
	<!ELEMENT VARIABLE ( NAME, ( OUTCOME |  PROPERTY )* ) >
	      <!ATTLIST VARIABLE TYPE (nature|decision|utility) "nature">
	<!ELEMENT OUTCOME (#PCDATA)>
	<!ELEMENT DEFINITION ( FOR | GIVEN | TABLE | PROPERTY )* >
	<!ELEMENT FOR (#PCDATA)>
	<!ELEMENT GIVEN (#PCDATA)>
	<!ELEMENT TABLE (#PCDATA)>
	<!ELEMENT PROPERTY (#PCDATA)>
]>


<BIF VERSION="0.3">
<NETWORK>
<NAME>TrainingData_g3-1-weka.filters.unsupervised.attribute.Remove-V-R11,13,16,21,25</NAME>
<VARIABLE TYPE="nature">
<NAME>current_TV_livingroom</NAME>
<OUTCOME>off</OUTCOME>
<OUTCOME>standby</OUTCOME>
<OUTCOME>on</OUTCOME>
<PROPERTY>position = (0,0)</PROPERTY>
</VARIABLE>
<VARIABLE TYPE="nature">
<NAME>current_xbox_livingroom</NAME>
<OUTCOME>off</OUTCOME>
<OUTCOME>standby</OUTCOME>
<OUTCOME>on</OUTCOME>
<PROPERTY>position = (50,0)</PROPERTY>
</VARIABLE>
<VARIABLE TYPE="nature">
<NAME>current_AC_livingroom</NAME>
<OUTCOME>off</OUTCOME>
<OUTCOME>standby</OUTCOME>
<OUTCOME>on</OUTCOME>
<PROPERTY>position = (100,0)</PROPERTY>
</VARIABLE>
<VARIABLE TYPE="nature">
<NAME>people_livingroom</NAME>
<OUTCOME>off</OUTCOME>
<OUTCOME>on</OUTCOME>
<PROPERTY>position = (150,0)</PROPERTY>
</VARIABLE>
<VARIABLE TYPE="nature">
<NAME>class</NAME>
<OUTCOME>OtherActivity</OUTCOME>
<OUTCOME>g3-1</OUTCOME>
<PROPERTY>position = (200,0)</PROPERTY>
</VARIABLE>
<DEFINITION>
<FOR>current_TV_livingroom</FOR>
<GIVEN>class</GIVEN>
<TABLE>
0.9995732878173672 2.133560913164071E-4 2.133560913164071E-4 
9.188642837452908E-5 9.188642837452908E-5 0.9998162271432509 
</TABLE>
</DEFINITION>
<DEFINITION>
<FOR>current_xbox_livingroom</FOR>
<GIVEN>class</GIVEN>
<TABLE>
0.4998933219543418 0.4998933219543418 2.133560913164071E-4 
0.37645869705044566 0.37645869705044566 0.24708260589910871 
</TABLE>
</DEFINITION>
<DEFINITION>
<FOR>current_AC_livingroom</FOR>
<GIVEN>class</GIVEN>
<TABLE>
2.133560913164071E-4 0.9995732878173672 2.133560913164071E-4 
9.188642837452908E-5 0.9380685472755674 0.06183956629605807 
</TABLE>
</DEFINITION>
<DEFINITION>
<FOR>people_livingroom</FOR>
<GIVEN>class</GIVEN>
<TABLE>
0.8427230046948356 0.1572769953051643 
9.189487226612754E-5 0.9999081051277339 
</TABLE>
</DEFINITION>
<DEFINITION>
<FOR>class</FOR>
<TABLE>
0.30097648721572656 0.6990235127842734 
</TABLE>
</DEFINITION>
</NETWORK>
</BIF>
